digraph Tree {
node [shape=box] ;
0 [label="petal length <= -0.048\nentropy = 0.992\nsamples = 960\nvalue = [530, 430]"] ;
1 [label="petal width <= 0.685\nentropy = 0.69\nsamples = 460\nvalue = [85, 375]"] ;
0 -> 1 [labeldistance=2.5, labelangle=45, headlabel="True"] ;
2 [label="petal length <= -0.779\nentropy = 0.295\nsamples = 365\nvalue = [19, 346]"] ;
1 -> 2 ;
3 [label="petal width <= -0.023\nentropy = 0.048\nsamples = 187\nvalue = [1, 186]"] ;
2 -> 3 ;
4 [label="entropy = 0.0\nsamples = 136\nvalue = [0, 136]"] ;
3 -> 4 ;
5 [label="petal width <= -0.022\nentropy = 0.139\nsamples = 51\nvalue = [1, 50]"] ;
3 -> 5 ;
6 [label="entropy = 0.0\nsamples = 1\nvalue = [1, 0]"] ;
5 -> 6 ;
7 [label="entropy = 0.0\nsamples = 50\nvalue = [0, 50]"] ;
5 -> 7 ;
8 [label="petal width <= 0.004\nentropy = 0.473\nsamples = 178\nvalue = [18, 160]"] ;
2 -> 8 ;
9 [label="petal width <= -0.638\nentropy = 0.598\nsamples = 124\nvalue = [18, 106]"] ;
8 -> 9 ;
10 [label="entropy = 0.137\nsamples = 52\nvalue = [1, 51]"] ;
9 -> 10 ;
11 [label="entropy = 0.789\nsamples = 72\nvalue = [17, 55]"] ;
9 -> 11 ;
12 [label="entropy = 0.0\nsamples = 54\nvalue = [0, 54]"] ;
8 -> 12 ;
13 [label="petal length <= -1.37\nentropy = 0.888\nsamples = 95\nvalue = [66, 29]"] ;
1 -> 13 ;
14 [label="entropy = 0.0\nsamples = 29\nvalue = [0, 29]"] ;
13 -> 14 ;
15 [label="entropy = 0.0\nsamples = 66\nvalue = [66, 0]"] ;
13 -> 15 ;
16 [label="petal length <= 0.704\nentropy = 0.5\nsamples = 500\nvalue = [445, 55]"] ;
0 -> 16 [labeldistance=2.5, labelangle=-45, headlabel="False"] ;
17 [label="petal width <= 0.6\nentropy = 0.804\nsamples = 224\nvalue = [169, 55]"] ;
16 -> 17 ;
18 [label="petal width <= -0.316\nentropy = 0.959\nsamples = 144\nvalue = [89, 55]"] ;
17 -> 18 ;
19 [label="petal length <= 0.055\nentropy = 0.475\nsamples = 49\nvalue = [44, 5]"] ;
18 -> 19 ;
20 [label="entropy = 1.0\nsamples = 10\nvalue = [5, 5]"] ;
19 -> 20 ;
21 [label="entropy = 0.0\nsamples = 39\nvalue = [39, 0]"] ;
19 -> 21 ;
22 [label="petal width <= 0.244\nentropy = 0.998\nsamples = 95\nvalue = [45, 50]"] ;
18 -> 22 ;
23 [label="entropy = 0.962\nsamples = 57\nvalue = [35, 22]"] ;
22 -> 23 ;
24 [label="entropy = 0.831\nsamples = 38\nvalue = [10, 28]"] ;
22 -> 24 ;
25 [label="entropy = 0.0\nsamples = 80\nvalue = [80, 0]"] ;
17 -> 25 ;
26 [label="entropy = 0.0\nsamples = 276\nvalue = [276, 0]"] ;
16 -> 26 ;
}